tree
version=v4
num_class=1
num_tree_per_iteration=1
label_index=0
max_feature_idx=19
objective=lambdarank
feature_names=Column_0 Column_1 Column_2 Column_3 Column_4 Column_5 Column_6 Column_7 Column_8 Column_9 Column_10 Column_11 Column_12 Column_13 Column_14 Column_15 Column_16 Column_17 Column_18 Column_19
feature_infos=[-1.5:1] [1:5] [0.69314718055994529:8.7435316336269668] [1:79.177016867270268] [0:1] [0:1] [-1:1] [0.29999999999999999:1] [0.069314718055994526:0.87435316336269664] [0:5] [-5:5] [-1.5:1] [0:1] [-2.1628475570674239:2.576520723805086] [0:1] [0:1] [0:9] [0:4] none [0:12]
tree_sizes=784 1188 993 979 780 884 777 782 775 881 997 1501 1104 686 573 1004 995 677 585 477 580 474 473 578 474 463 463 464 464 455 372 373 371 368 371 369 371 370 373

Tree=0
num_leaves=6
num_cat=0
split_feature=4 4 5 5 5
split_gain=360.904 5.83541 2.3549 0.468872 0.556037
threshold=0.099945115257958309 0.34833164812942369 0.30151515151515157 0.24889380530973454 0.3322510822510823
decision_type=2 2 2 2 2
left_child=-1 2 -2 -3 -5
right_child=1 3 -4 4 -6
leaf_value=-0.36544596305743121 0.24657300529633439 0.35762566945583435 -0.34879921914981443 0.31817376215290227 -0.31739332126292419
leaf_weight=49.396523379093196 30.064991707971789 30.424937387113463 0.21751118276006209 0.10816965135745604 0.073706759925698861
leaf_count=39908 10332 2378 155 22 48
internal_value=0.00158127 0.299379 0.242177 0.355861 0.0453889
internal_weight=110.286 60.8893 30.2825 30.6068 0.181876
internal_count=52843 12935 10487 2448 70
is_linear=0
shrinkage=0.18276


Tree=1
num_leaves=10
num_cat=0
split_feature=9 4 1 1 4 4 4 10 1
split_gain=353.417 67.7925 10.2891 3.6678 5.09727 3.37729 2.6718 1.01386 0.475286
threshold=2.5100000000000002 0.34833164812942369 3.4964028776978422 2.3431372549019613 0.57738095238095244 0.57738095238095244 0.099945115257958309 2.4192708333333335 4.312539707750954
decision_type=2 2 2 2 2 2 2 2 2
left_child=1 6 -2 -3 8 -4 -1 -6 -5
right_child=2 3 5 4 7 -7 -8 -9 -10
leaf_value=-0.27134406830943053 -0.32312639061525478 -0.31206782834593838 -0.10164093530353988 -0.016575012439459576 0.081168518236758996 0.33595401109684586 -0.34571307696818648 0.33251539999143259 -0.05498935642394339
leaf_weight=30.495154282980366 0.80297675170004268 1.6140783969312895 0.58359931409358878 15.257416393666061 0.93144027329981249 69.97142764943419 35.866350779280765 1.3817190276458859 38.385662805725588
leaf_count=39908 18 29 21 399 11 891 10487 9 1070
internal_value=0.000853966 -0.18569 0.324868 -0.0405096 -0.0326136 0.332293 -0.311591 0.232671 -0.044114
internal_weight=195.29 123.932 71.358 57.5703 55.9562 70.555 66.3615 2.31316 53.6431
internal_count=52843 51913 930 1518 1489 912 50395 20 1469
is_linear=0
shrinkage=0.18276


Tree=2
num_leaves=8
num_cat=0
split_feature=14 14 14 0 5 2 0
split_gain=340.019 10.2868 0.644992 0.576757 0.722273 0.346897 0.316916
threshold=0.12488728732007948 0.33340419501133794 0.009989029076261478 0.35040322580645172 0.20881782945736438 2.524928003624769 0.61339285714285718
decision_type=2 2 2 2 2 2 2
left_child=2 3 -1 4 -2 -3 -5
right_child=1 5 -4 6 -6 -7 -8
leaf_value=-0.23307109218307065 0.14525263711061215 0.24372089387422499 -0.2662612779109817 0.051495234278846301 -0.24732042974098542 0.13584191255935973 -0.17679664841795759
leaf_weight=70.589027633075602 3.9201420696917912 96.091362474253401 29.635465477942489 9.1807707117404753 0.15570905990898598 1.1304190717637528 0.20005013351328749
leaf_count=39908 273 943 10507 1095 57 10 50
internal_value=0.000922965 0.221757 -0.242919 0.0716971 0.129445 0.242498 0.0462931
internal_weight=210.903 110.678 100.224 13.4567 4.07585 97.2218 9.38082
internal_count=52843 2428 50415 1475 330 953 1145
is_linear=0
shrinkage=0.18276


Tree=3
num_leaves=8
num_cat=0
split_feature=14 14 9 1 1 1 10
split_gain=264.169 11.3799 4.62587 0.822574 0.640537 1.38374 0.473186
threshold=0.12488728732007948 0.33340419501133794 2.1275887573964503 4.312539707750954 3.9975609756097565 3.4964028776978422 1.7345344387755104
decision_type=2 2 2 2 2 2 2
left_child=-1 2 3 -2 5 -3 -5
right_child=1 4 -4 6 -6 -7 -8
leaf_value=-0.21966972442453367 0.14026621489398922 -0.24945953439261348 -0.12796808043768976 0.094112666908950454 0.2219497717166716 0.21636907180527995 -0.043493079183864199
leaf_weight=96.09853313898202 7.6363139747409132 0.30360938748344679 3.7408008067868641 1.7973008390981706 92.371040123514831 0.67802368104457855 1.5245515070855615
leaf_count=50415 394 47 738 125 894 12 218
internal_value=0.000761512 0.196833 0.0471231 0.107153 0.220375 0.0693053 0.0301819
internal_weight=204.15 108.052 14.699 10.9582 93.3527 0.981633 3.32185
internal_count=52843 2428 1475 737 953 59 343
is_linear=0
shrinkage=0.18276


Tree=4
num_leaves=6
num_cat=0
split_feature=4 4 11 5 3
split_gain=217.62 10.6817 1.32413 0.625595 0.37436
threshold=0.35339366515837112 0.57738095238095244 0.31782600308641989 0.20881782945736438 2.5476205269238847
decision_type=2 2 2 2 2
left_child=-1 2 3 -2 -4
right_child=1 -3 4 -5 -6
leaf_value=-0.20679796025575922 0.1016692568461762 0.20788090473841406 0.0061843788523533016 -0.23935424958659215 -0.10418148315565914
leaf_weight=89.935831542359665 8.2004561324138159 86.737465840065852 6.2019383588340125 0.17659867799375284 1.2199147506617007
leaf_count=50415 437 953 766 56 216
internal_value=0.000685455 0.182698 0.0442617 0.0940858 -0.0116338
internal_weight=192.472 102.536 15.7989 8.37705 7.42185
internal_count=52843 2428 1475 493 982
is_linear=0
shrinkage=0.18276


Tree=5
num_leaves=7
num_cat=0
split_feature=14 14 9 11 0 11
split_gain=179.667 11.7169 2.85026 0.542497 0.480876 0.366534
threshold=0.12488728732007948 0.33340419501133794 2.1275887573964503 0.32536250000000005 0.29965277777777782 -0.10830729166666665
decision_type=2 2 2 2 2 2
left_child=-1 2 5 4 -3 -2
right_child=1 3 -4 -5 -6 -7
leaf_value=-0.19859152721689119 -0.31396121653395226 -0.11937506072878537 -0.10930873737696437 0.20127543747914492 0.17344023930004812 0.07431826615098179
leaf_weight=81.603078767075203 0.07641108823008913 0.33041293127462168 3.7254714615410185 78.361147461459041 0.4121699770912528 12.943895416334271
leaf_count=50415 5 31 738 915 7 732
internal_value=0.000694111 0.170388 0.0313144 0.199793 0.0396521 0.0717685
internal_weight=177.453 95.8495 16.7458 79.1037 0.742583 13.0203
internal_count=52843 2428 1475 953 38 737
is_linear=0
shrinkage=0.18276


Tree=6
num_leaves=6
num_cat=0
split_feature=4 4 13 0 2
split_gain=150.908 11.7358 1.71261 1.27814 0.432261
threshold=0.35339366515837112 0.57738095238095244 0.40110722747647254 0.35040322580645172 2.4414009612931857
decision_type=2 2 2 2 2
left_child=-1 3 -3 -2 -4
right_child=1 2 4 -5 -6
leaf_value=-0.19194832682946297 0.081820536946452957 -0.15120713123800236 0.19767408193412814 -0.020040639034490618 0.02744804705794783
leaf_weight=73.39102810510667 7.2367365565151003 0.46592791518196364 71.140817755833268 9.4647507617482898 0.5390947163105001
leaf_count=50459 313 48 902 1134 14
internal_value=0.00196861 0.162182 0.194144 0.0239441 0.196432
internal_weight=162.238 88.8473 72.1458 16.7015 71.6799
internal_count=52870 2411 964 1447 916
is_linear=0
shrinkage=0.18276


Tree=7
num_leaves=6
num_cat=0
split_feature=14 9 9 0 7
split_gain=126.502 12.2142 1.09511 0.332833 0.323657
threshold=0.12488728732007948 2.5100000000000002 2.1275887573964503 0.5607692307692308 0.92041666666666677
decision_type=2 2 2 2 2
left_child=-1 2 4 -4 -2
right_child=1 -3 3 -5 -6
leaf_value=-0.18826369799652898 0.056965009324531683 0.19260037664930749 -0.078320502965856978 0.063247357267434259 -0.035409570892244814
leaf_weight=64.794598407577723 12.451804562238978 62.760481329169124 3.7295354208908966 0.62850043806247402 1.3719739040825505
leaf_count=50459 615 941 665 70 120
internal_value=0.00202416 0.154384 0.0223137 -0.0572706 0.0476007
internal_weight=145.737 80.9423 18.1818 4.35804 13.8238
internal_count=52870 2411 1470 735 735
is_linear=0
shrinkage=0.18276


Tree=8
num_leaves=6
num_cat=0
split_feature=4 9 9 11 2
split_gain=104.244 12.3428 0.756646 0.435891 0.341916
threshold=0.35339366515837112 2.5100000000000002 2.0003287310979623 0.5072530864197532 2.4414009612931857
decision_type=2 2 2 2 2
left_child=-1 2 -2 4 -3
right_child=1 3 -4 -5 -6
leaf_value=-0.18484965547842525 0.039300568538635866 0.14002193808324132 -0.043235301871556144 0.19365613269245571 -0.065876226199653345
leaf_weight=56.223621300247032 13.117766722571107 2.8636161233298476 5.1458863409934557 51.659906461602077 0.27736642817035306
leaf_count=50459 668 83 802 847 11
internal_value=0.00220182 0.146177 0.015898 0.189544 0.120957
internal_weight=129.288 73.0645 18.2637 54.8009 3.14098
internal_count=52870 2411 1470 941 94
is_linear=0
shrinkage=0.18276


Tree=9
num_leaves=7
num_cat=0
split_feature=4 0 1 6 4 6
split_gain=85.3728 12.7756 1.20289 0.738977 0.67251 0.308881
threshold=0.35339366515837112 0.5607692307692308 4.6368631368631386 0.68333333333333346 0.57738095238095244 0.12477758007117438
decision_type=2 2 2 2 2 2
left_child=5 2 3 -2 -3 -1
right_child=1 4 -4 -5 -6 -7
leaf_value=-0.18849457386614954 0.045779701096032029 -0.0088783568189276813 -0.069703894032289423 -0.18580831756491004 0.19255545402420252 -0.1468192225721999
leaf_weight=40.370794571586885 13.956606871564873 0.5347492063883682 4.5419182936893767 0.46911887498572546 46.015207277610898 7.8114124125568187
leaf_count=44108 776 74 655 43 863 6351
internal_value=0.00283873 0.138667 0.0120869 0.0380303 0.190184 -0.181802
internal_weight=113.7 65.5176 18.9676 14.4257 46.55 48.1822
internal_count=52870 2411 1474 819 937 50459
is_linear=0
shrinkage=0.18276


Tree=10
num_leaves=8
num_cat=0
split_feature=4 0 15 4 0 6 2
split_gain=69.5709 12.0167 0.661176 0.660347 0.579531 0.40384 0.32434
threshold=0.35339366515837112 0.5607692307692308 0.080750163959723772 0.57738095238095244 0.35040322580645172 0.12477758007117438 2.1383330595080281
decision_type=2 2 2 2 2 2 2
left_child=5 2 4 -3 -2 -1 -6
right_child=1 3 -4 -5 6 -7 -8
leaf_value=-0.18763634546710023 0.052093761020953852 -0.0099381636124354286 -0.27237300275612331 0.19160150265628367 0.00083014928458309154 -0.13648666642290122 -0.083463006024640976
leaf_weight=34.28897481871536 7.7327907297294649 0.52518599014729161 0.26953775389119883 38.921531114727259 8.538410709705202 6.6229560923820818 1.8378695730352763
leaf_count=44108 307 74 49 863 881 6351 237
internal_value=0.00291996 0.131983 0.0097709 0.188851 0.0141585 -0.179431 -0.0138646
internal_weight=98.7373 57.8253 18.3786 39.4467 18.1091 40.9119 10.3763
internal_count=52870 2411 1474 937 1425 50459 1118
is_linear=0
shrinkage=0.18276


Tree=11
num_leaves=13
num_cat=0
split_feature=4 11 1 4 6 9 12 12 9 6 6 6
split_gain=56.162 10.7502 0.966595 0.743236 0.483008 0.539302 0.574464 0.533025 0.517695 0.471427 0.35766 0.363919
threshold=0.35339366515837112 0.5072530864197532 4.605934867345657 0.57738095238095244 0.12477758007117438 0.840355029585799 0.11875854227542654 0.13653818867237541 0.51858985205755792 0.68333333333333346 0.57518796992481214 0.40138888888888896
decision_type=2 2 2 2 2 2 2 2 2 2 2 2
left_child=4 2 9 -3 -1 6 8 -8 -6 -2 11 -4
right_child=1 3 10 -5 5 -7 7 -9 -10 -11 -12 -13
leaf_value=-0.18719250800939091 0.040161140324976564 0 -0.024632767751374331 0.19092780746655014 0.074655947637794678 -0.18390604350315473 0.10193041619476283 -0.17403033279102778 -0.1831712018097181 -0.17098350348997893 0.17070161362286149 -0.13624255632972115
leaf_weight=28.530010047310498 13.059933494427241 0.68467338080517848 2.148159059463068 32.363747266121209 0.29924343293532674 2.9137547625578009 0.86497847517603055 0.31366872118087485 1.4459985165158284 0.35592976678162891 0.19440172892063845 1.901110806269571
leaf_count=44108 736 91 195 851 150 3628 402 386 1785 43 16 479
internal_value=0.00315369 0.125428 0.0101501 0.186942 -0.177176 -0.127702 -0.070666 0.0260123 -0.137404 0.0343274 -0.0656335 -0.0777436
internal_weight=85.0756 50.708 17.6595 33.0484 34.3677 5.83764 2.92389 1.17865 1.74524 13.4159 4.24367 4.04927
internal_count=52870 2411 1469 942 50459 6351 2723 788 1935 779 690 674
is_linear=0
shrinkage=0.18276


Tree=12
num_leaves=9
num_cat=0
split_feature=4 10 12 12 15 10 11 9
split_gain=46.0816 9.26328 0.40916 1.01089 0.369644 0.358223 0.423071 0.31495
threshold=0.35339366515837112 2.5100000000000002 0.11875854227542654 0.13653818867237541 0.080750163959723772 0.59380425347222232 0.13333617489832528 1.7510330578512401
decision_type=2 2 2 2 2 2 2 2
left_child=2 4 -1 5 7 -4 -7 -2
right_child=1 -3 3 -5 -6 6 -8 -9
leaf_value=-0.18613346946663886 0.045814671029021009 0.18721155502715744 -0.17133408374415357 -0.1828216123453664 -0.23229126323098731 0.12886837238183591 -0.16874060859280474 -0.0049571009677921692
leaf_weight=24.358446765312696 7.2133908828254851 27.366043962305412 0.26181885725236431 2.7160375471867155 0.19671536819077928 0.7839394811890088 0.1910975260543637 9.2062616701005009
leaf_count=45674 309 920 383 4063 57 307 258 1084
internal_value=0.00475271 0.121853 -0.177066 -0.120431 0.0140392 0.0145492 0.0675175 0.017191
internal_weight=72.2938 43.9824 28.3113 3.95289 16.6164 1.23686 0.975037 16.4197
internal_count=53055 2370 50685 5011 1450 948 565 1393
is_linear=0
shrinkage=0.18276


Tree=13
num_leaves=5
num_cat=0
split_feature=11 9 10 10
split_gain=35.1317 8.90095 0.3616 0.407386
threshold=0.5072530864197532 1.2452377412983926 0.59380425347222232 0.61753805032820097
decision_type=2 2 2 2
left_child=1 2 -1 -4
right_child=-2 -3 3 -5
leaf_value=-0.18533075410660987 0.18579186918326737 0.0027804969926218891 0.058049835283585927 -0.14021294153122191
leaf_weight=19.487308595416838 22.547199048916809 15.824494401793343 0.38045877503463943 2.4711214592680335
leaf_count=45058 945 2832 270 3950
internal_value=0.00488962 -0.101925 -0.176206 -0.112804
internal_weight=60.7106 38.1634 22.3389 2.85158
internal_count=53055 52110 49278 4220
is_linear=0
shrinkage=0.18276


Tree=14
num_leaves=4
num_cat=0
split_feature=4 0 4
split_gain=28.7139 7.0304 0.547983
threshold=0.35339366515837112 0.5607692307692308 0.57738095238095244
decision_type=2 2 2
left_child=-1 -2 -3
right_child=1 2 -4
leaf_value=-0.17498799809062524 0.012331734181870457 -0.010708386478814244 0.18963147501189145
leaf_weight=18.708874995907536 14.060329022584481 0.44219393003732221 17.749027563259006
leaf_count=50685 1434 69 867
internal_value=0.00506257 0.109597 0.184616
internal_weight=50.9604 32.2516 18.1912
internal_count=53055 2370 936
is_linear=0
shrinkage=0.18276


Tree=15
num_leaves=8
num_cat=0
split_feature=14 9 13 13 12 9 9
split_gain=22.1121 5.95248 0.628269 0.458451 0.348092 0.583323 0.327253
threshold=0.12488728732007948 2.5100000000000002 0.40110722747647254 0.60075125901658999 0.13653818867237541 0.77784383670233859 1.7510330578512401
decision_type=2 2 2 2 2 2 2
left_child=3 6 -3 -1 5 -5 -2
right_child=1 2 -4 4 -6 -7 -8
leaf_value=-0.18135624722534135 0.042238796786082812 -0.16154093532826824 0.18566177083119487 -0.17146797983321227 -0.1768325970915394 0.14714050137294257 -0.017497464537207151
leaf_weight=13.825987952193826 5.6103593283914961 0.16595340240746814 14.759697771165518 0.32720320497173705 0.54931583542202134 0.45239008335920516 6.6711527142324485
leaf_count=48041 323 21 920 840 1580 224 1106
internal_value=0.00544719 0.104052 0.181594 -0.171387 -0.0655159 0.00990537 0.00957943
internal_weight=42.3621 27.2072 14.9257 15.1549 1.32891 0.779593 12.2815
internal_count=53055 2370 941 50685 2644 1064 1429
is_linear=0
shrinkage=0.18276


Tree=16
num_leaves=8
num_cat=0
split_feature=14 0 13 1 11 6 12
split_gain=17.1443 4.97855 0.58486 0.446506 0.411413 0.40913 0.39892
threshold=0.12488728732007948 0.5607692307692308 0.60075125901658999 4.605934867345657 0.13333617489832528 0.57518796992481214 0.1204993074792244
decision_type=2 2 2 2 2 2 2
left_child=2 3 -1 -2 6 -3 -4
right_child=1 5 4 -5 -6 -7 -8
leaf_value=-0.18380314855439742 0.030337359097313197 -0.0034252645662328444 -0.16506210137762042 -0.05987462695110389 -0.17542351164559927 0.18895582114852136 0.13792286913999513
leaf_weight=10.898669554386286 8.844199073500933 0.3538326704874607 0.19962968172330764 2.2965997195569789 0.47036663828475866 11.235092204762623 0.47866069772862829
leaf_count=48041 790 69 675 644 1723 867 246
internal_value=0.00550004 0.0989915 -0.170653 0.0114933 -0.0434431 0.182855 0.0445561
internal_weight=34.7771 22.7297 12.0473 11.1408 1.14866 11.5889 0.67829
internal_count=53055 2370 50685 1434 2644 936 921
is_linear=0
shrinkage=0.18276


Tree=17
num_leaves=5
num_cat=0
split_feature=14 10 1 1
split_gain=13.2563 4.0377 0.330727 0.328142
threshold=0.12488728732007948 2.5100000000000002 4.605934867345657 3.4964028776978422
decision_type=2 2 2 2
left_child=-1 2 -2 -3
right_child=1 3 -4 -5
leaf_value=-0.17052820114549833 0.029499378710289816 -0.13396698675958285 -0.053014761933881251 0.18516406859745047
leaf_weight=9.4778423848838447 7.6199732451350446 0.097369075752793743 2.0435408265038859 9.0579491509124619
leaf_count=50685 761 17 689 903
internal_value=0.00560721 0.094468 0.0117665 0.181441
internal_weight=28.2967 18.8188 9.66351 9.15532
internal_count=53055 2370 1450 920
is_linear=0
shrinkage=0.18276


Tree=18
num_leaves=4
num_cat=0
split_feature=0 10 14
split_gain=10.0472 3.75891 0.337685
threshold=0.61339285714285718 0.59380425347222232 0.12488728732007948
decision_type=2 2 2
left_child=1 -1 -3
right_child=-2 2 -4
leaf_value=-0.18605372315631374 0.18607182442564613 -0.098158330080800368 0.0064858928225102596
leaf_weight=6.4107750878247378 6.8956478430191046 1.1633435040675966 8.6155517574516107
leaf_count=44902 839 5512 1515
internal_value=0.00126138 -0.0773106 -0.00571823
internal_weight=23.0853 16.1897 9.7789
internal_count=52768 51929 7027
is_linear=0
shrinkage=0.18276


Tree=19
num_leaves=3
num_cat=0
split_feature=0 10
split_gain=7.78585 3.08841
threshold=0.61339285714285718 0.59380425347222232
decision_type=2 2
left_child=1 -1
right_child=-2 -3
leaf_value=-0.18625294123920769 0.18366726789888083 -0.0049283166639644835
leaf_weight=5.0839607506532074 5.5280440172646186 8.2694348064796923
leaf_count=44902 839 7027
internal_value=0.00118417 -0.0741857
internal_weight=18.8814 13.3534
internal_count=52768 51929
is_linear=0
shrinkage=0.18276


Tree=20
num_leaves=4
num_cat=0
split_feature=4 0 0
split_gain=5.95808 2.36831 0.501526
threshold=0.35339366515837112 0.61339285714285718 -0.067403846153846134
decision_type=2 2 2
left_child=-1 2 -2
right_child=1 -3 -4
leaf_value=-0.16491536488202813 -0.69190013122282923 0.18114068167864975 0.0098726811848299009
leaf_weight=4.9298646713723437 0.031278537935577222 4.3788387993117794 6.2548528345505456
leaf_count=50367 22 839 1540
internal_value=0.0010093 0.0779788 0.00564811
internal_weight=15.5948 10.665 6.28613
internal_count=52768 2401 1562
is_linear=0
shrinkage=0.18276


Tree=21
num_leaves=3
num_cat=0
split_feature=10 10
split_gain=4.75574 2.02824
threshold=0.71448357736446388 3.1388888888888893
decision_type=2 2
left_child=-1 -2
right_child=1 -3
leaf_value=-0.17866300628730988 0.007303161818178772 0.18651338171140119
leaf_weight=3.5609913571461229 6.1601759718741942 3.2315423167892732
leaf_count=46235 5771 762
internal_value=0.000890779 0.0692856
internal_weight=12.9527 9.39172
internal_count=52768 6533
is_linear=0
shrinkage=0.18276


Tree=22
num_leaves=3
num_cat=0
split_feature=4 10
split_gain=3.78786 1.66682
threshold=0.17348206181627099 3.1388888888888893
decision_type=2 2
left_child=-1 -2
right_child=1 -3
leaf_value=-0.18382036733968649 0.0072142729435160126 0.18561793478233518
leaf_weight=2.7327711116031432 5.4579121456199555 2.5949575523845851
leaf_count=45541 6465 762
internal_value=0.00173632 0.0650763
internal_weight=10.7856 8.05287
internal_count=52768 7227
is_linear=0
shrinkage=0.18276


Tree=23
num_leaves=4
num_cat=0
split_feature=4 9 13
split_gain=3.00334 1.15989 0.483558
threshold=0.35339366515837112 3.1388888888888893 0.71274589062969318
decision_type=2 2 2
left_child=2 -2 -1
right_child=1 -3 -4
leaf_value=-0.18336938526719582 0.015927571069214528 0.18422497123578771 0.039128315780401546
leaf_weight=2.4581057739433168 4.0796307373420859 2.0863472844066564 0.35329502706827032
leaf_count=48811 1633 768 1556
internal_value=0.00169463 0.0733604 -0.15446
internal_weight=8.97738 6.16598 2.8114
internal_count=52768 2401 50367
is_linear=0
shrinkage=0.18276


Tree=24
num_leaves=3
num_cat=0
split_feature=4 11
split_gain=2.4119 0.865138
threshold=0.34833164812942369 0.65002222222222239
decision_type=2 2
left_child=-1 -2
right_child=1 -3
leaf_value=-0.15870927769397425 0.019594464828228839 0.18366476427785949
leaf_weight=2.2058827036203184 3.6176606770804938 1.5516188505571333
leaf_count=50290 1672 720
internal_value=0.000799284 0.0694268
internal_weight=7.37516 5.16928
internal_count=52682 2392
is_linear=0
shrinkage=0.18276


Tree=25
num_leaves=3
num_cat=0
split_feature=10 10
split_gain=2.11169 0.828947
threshold=0.737866407488175 3.1388888888888893
decision_type=2 2
left_child=-1 -2
right_child=1 -3
leaf_value=-0.18899365613144467 0.011108912077072276 0.18295285697237698
leaf_weight=1.4997573999173708 3.3785752340490944 1.3156398434512082
leaf_count=46381 5551 750
internal_value=0 0.0599154
internal_weight=6.19397 4.69422
internal_count=52682 6301
is_linear=0
shrinkage=0.18276


Tree=26
num_leaves=3
num_cat=0
split_feature=10 10
split_gain=1.54519 0.694699
threshold=0.737866407488175 3.1388888888888893
decision_type=2 2
left_child=-1 -2
right_child=1 -3
leaf_value=-0.18203645369734045 0.0082114963818677687 0.18199514463793681
leaf_weight=1.1927351843983158 2.9491036740173513 1.0537611259933326
leaf_count=46381 5551 750
internal_value=0 0.0547166
internal_weight=5.1956 4.00286
internal_count=52682 6301
is_linear=0
shrinkage=0.18276


Tree=27
num_leaves=3
num_cat=0
split_feature=4 0
split_gain=1.2243 0.495071
threshold=0.34833164812942369 0.50178571428571439
decision_type=2 2
left_child=-1 -2
right_child=1 -3
leaf_value=-0.15222836733623712 0.0036865348128116288 0.15488309060429009
leaf_weight=1.2583465863300487 1.9809308917483579 1.1716829616634639
leaf_count=50290 1437 955
internal_value=0 0.0608055
internal_weight=4.41096 3.15261
internal_count=52682 2392
is_linear=0
shrinkage=0.18276


Tree=28
num_leaves=3
num_cat=0
split_feature=6 9
split_gain=0.993732 0.470056
threshold=0.16139050290522947 3.1388888888888893
decision_type=2 2
left_child=-1 -2
right_child=1 -3
leaf_value=-0.18065283810524221 0.0068983034167071902 0.17802042642485985
leaf_weight=0.79779397908339467 2.2920412775113168 0.71196300114388567
leaf_count=45994 5933 755
internal_value=0 0.0484637
internal_weight=3.8018 3.004
internal_count=52682 6688
is_linear=0
shrinkage=0.18276


Tree=29
num_leaves=3
num_cat=0
split_feature=13 4
split_gain=0.814185 0.45151
threshold=0.44777239315378897 0.57738095238095244
decision_type=2 2
left_child=-1 -2
right_child=1 -3
leaf_value=-0.13368268183522425 0 0.1657266436117428
leaf_weight=1.0110224256026188 1.4313346150320856 0.87717966402124137
leaf_count=45221 6588 873
internal_value=0.00203689 0.0627098
internal_weight=3.31954 2.30851
internal_count=52682 7461
is_linear=0
shrinkage=0.18276


Tree=30
num_leaves=2
num_cat=0
split_feature=12
split_gain=0.703056
threshold=0.1204993074792244
decision_type=2
left_child=-1
right_child=-2
leaf_value=-0.17867078375588977 0.046701155382744941
leaf_weight=0.57485779617240984 2.3089084566591396
leaf_count=45630 7291
internal_value=0.000727888
internal_weight=2.88377
internal_count=52921
is_linear=0
shrinkage=0.18276


Tree=31
num_leaves=2
num_cat=0
split_feature=13
split_gain=0.619271
threshold=0.51636548606409283
decision_type=2
left_child=-1
right_child=-2
leaf_value=-0.12956964563112564 0.061340824690948204
leaf_weight=0.82349919926406334 1.8075484875771506
leaf_count=46978 5943
internal_value=0.000509115
internal_weight=2.63105
internal_count=52921
is_linear=0
shrinkage=0.18276


Tree=32
num_leaves=2
num_cat=0
split_feature=10
split_gain=0.466252
threshold=0.72226069559864581
decision_type=2
left_child=-1
right_child=-2
leaf_value=-0.17619440400684591 0.038476349237348828
leaf_weight=0.40252831107559961 2.0196728355793994
leaf_count=46472 6449
internal_value=0.00154747
internal_weight=2.4222
internal_count=52921
is_linear=0
shrinkage=0.18276


Tree=33
num_leaves=2
num_cat=0
split_feature=0
split_gain=0.460781
threshold=0.6708333333333335
decision_type=2
left_child=-1
right_child=-2
leaf_value=-0.036553516133593769 0.17668322847345355
leaf_weight=1.8397306355669232 0.4114434266120951
leaf_count=52178 743
internal_value=0.00142282
internal_weight=2.25117
internal_count=52921
is_linear=0
shrinkage=0.18276


Tree=34
num_leaves=2
num_cat=0
split_feature=4
split_gain=0.386659
threshold=0.34833164812942369
decision_type=2
left_child=-1
right_child=-2
leaf_value=-0.13269706580966631 0.048727959062187055
leaf_weight=0.52150198116744695 1.5501337833316027
leaf_count=50537 2384
internal_value=0.00166451
internal_weight=2.07164
internal_count=52921
is_linear=0
shrinkage=0.18276


Tree=35
num_leaves=2
num_cat=0
split_feature=9
split_gain=0.358947
threshold=3.1388888888888893
decision_type=2
left_child=-1
right_child=-2
leaf_value=-0.033114124676182313 0.17291261639681482
leaf_weight=1.5832820240898966 0.34026695973807375
leaf_count=52143 778
internal_value=0.00216312
internal_weight=1.92355
internal_count=52921
is_linear=0
shrinkage=0.18276


Tree=36
num_leaves=2
num_cat=0
split_feature=4
split_gain=0.404701
threshold=0.34833164812942369
decision_type=2
left_child=-1
right_child=-2
leaf_value=-0.15734585942188087 0.052049607053095692
leaf_weight=0.39160961308157038 1.3952612493410468
leaf_count=50205 2417
internal_value=0.00450551
internal_weight=1.78687
internal_count=52622
is_linear=0
shrinkage=0.18276


Tree=37
num_leaves=2
num_cat=0
split_feature=9
split_gain=0.338868
threshold=2.2587868480725626
decision_type=2
left_child=-1
right_child=-2
leaf_value=-0.058734353179504845 0.11158333037790497
leaf_weight=1.0204743271933407 0.62530436544932411
leaf_count=51220 1402
internal_value=0.00445683
internal_weight=1.64578
internal_count=52622
is_linear=0
shrinkage=0.18276


Tree=38
num_leaves=2
num_cat=0
split_feature=13
split_gain=0.312973
threshold=0.60891297709534098
decision_type=2
left_child=-1
right_child=-2
leaf_value=-0.081553012063252536 0.082401017419427472
leaf_weight=0.7460925885567562 0.80383761779533813
leaf_count=48578 4044
internal_value=0.00177316
internal_weight=1.54993
internal_count=52622
is_linear=0
shrinkage=0.18276


end of trees

feature_importances:
Column_4=28
Column_9=18
Column_10=17
Column_0=16
Column_14=12
Column_1=11
Column_6=9
Column_11=9
Column_13=8
Column_12=7
Column_5=5
Column_2=4
Column_15=2
Column_3=1
Column_7=1

parameters:
[boosting: gbdt]
[objective: lambdarank]
[metric: ndcg]
[tree_learner: serial]
[device_type: cpu]
[data_sample_strategy: bagging]
[data: ]
[valid: ]
[num_iterations: 169]
[learning_rate: 0.18276]
[num_leaves: 109]
[num_threads: -1]
[seed: 0]
[deterministic: 0]
[force_col_wise: 0]
[force_row_wise: 0]
[histogram_pool_size: -1]
[max_depth: 5]
[min_data_in_leaf: 8]
[min_sum_hessian_in_leaf: 0.001]
[bagging_fraction: 0.652121]
[pos_bagging_fraction: 1]
[neg_bagging_fraction: 1]
[bagging_freq: 6]
[bagging_seed: 3]
[bagging_by_query: 0]
[feature_fraction: 0.591702]
[feature_fraction_bynode: 1]
[feature_fraction_seed: 2]
[extra_trees: 0]
[extra_seed: 6]
[early_stopping_round: 0]
[early_stopping_min_delta: 0]
[first_metric_only: 0]
[max_delta_step: 0]
[lambda_l1: 0.0144453]
[lambda_l2: 0.00285855]
[linear_lambda: 0]
[min_gain_to_split: 0.305926]
[drop_rate: 0.1]
[max_drop: 50]
[skip_drop: 0.5]
[xgboost_dart_mode: 0]
[uniform_drop: 0]
[drop_seed: 4]
[top_rate: 0.2]
[other_rate: 0.1]
[min_data_per_group: 100]
[max_cat_threshold: 32]
[cat_l2: 10]
[cat_smooth: 10]
[max_cat_to_onehot: 4]
[top_k: 20]
[monotone_constraints: ]
[monotone_constraints_method: basic]
[monotone_penalty: 0]
[feature_contri: ]
[forcedsplits_filename: ]
[refit_decay_rate: 0.9]
[cegb_tradeoff: 1]
[cegb_penalty_split: 0]
[cegb_penalty_feature_lazy: ]
[cegb_penalty_feature_coupled: ]
[path_smooth: 0]
[interaction_constraints: ]
[verbosity: -1]
[saved_feature_importance_type: 0]
[use_quantized_grad: 0]
[num_grad_quant_bins: 4]
[quant_train_renew_leaf: 0]
[stochastic_rounding: 1]
[linear_tree: 0]
[max_bin: 255]
[max_bin_by_feature: ]
[min_data_in_bin: 3]
[bin_construct_sample_cnt: 200000]
[data_random_seed: 1]
[is_enable_sparse: 1]
[enable_bundle: 1]
[use_missing: 1]
[zero_as_missing: 0]
[feature_pre_filter: 1]
[pre_partition: 0]
[two_round: 0]
[header: 0]
[label_column: ]
[weight_column: ]
[group_column: ]
[ignore_column: ]
[categorical_feature: ]
[forcedbins_filename: ]
[precise_float_parser: 0]
[parser_config_file: ]
[objective_seed: 5]
[num_class: 1]
[is_unbalance: 0]
[scale_pos_weight: 1]
[sigmoid: 1]
[boost_from_average: 1]
[reg_sqrt: 0]
[alpha: 0.9]
[fair_c: 1]
[poisson_max_delta_step: 0.7]
[tweedie_variance_power: 1.5]
[lambdarank_truncation_level: 30]
[lambdarank_norm: 1]
[label_gain: 0,1,3,7]
[lambdarank_position_bias_regularization: 0]
[eval_at: 5,10]
[multi_error_top_k: 1]
[auc_mu_weights: ]
[num_machines: 1]
[local_listen_port: 12400]
[time_out: 120]
[machine_list_filename: ]
[machines: ]
[gpu_platform_id: -1]
[gpu_device_id: -1]
[gpu_use_dp: 0]
[num_gpu: 1]

end of parameters

pandas_categorical:null
